{
  "activationFunctionFactory": {
    "activationFunctionMap": {
      "TANH": {
        "type": "basicneuralnetwork.activationfunctions.TanhActivationFunction",
        "data": {}
      },
      "RELU": {
        "type": "basicneuralnetwork.activationfunctions.ReLuActivationFunction",
        "data": {}
      },
      "SIGMOID": {
        "type": "basicneuralnetwork.activationfunctions.SigmoidActivationFunction",
        "data": {}
      }
    }
  },
  "random": {
    "seed": 262111139982479,
    "nextNextGaussian": 0.0,
    "haveNextNextGaussian": false
  },
  "inputNodes": 400,
  "hiddenLayers": 1,
  "hiddenNodes": 1,
  "outputNodes": 1,
  "weights": [
    {
      "mat": {
        "type": "org.ejml.data.DMatrixRMaj",
        "data": {
          "data": [
            -0.1772425124281578,
            0.2516259422678322,
            0.6588128282411831,
            -0.8509024072608002,
            0.13388735854393685,
            -0.35731328415347385,
            0.8379517533372527,
            0.5768618916507778,
            -0.1096673104436009,
            0.13273338954441774,
            0.9986123724283654,
            0.9304248898609615,
            0.42056333071984975,
            -0.6604506102932897,
            0.6169694636563328,
            -0.2226971249425569,
            0.45736939789080444,
            -0.6916560204460867,
            -0.5082411352272223,
            0.4266111338377727,
            0.25220264083629806,
            0.6651735471399257,
            0.049647016519529893,
            -0.8953668226483162,
            -0.9331900282041374,
            -0.8317066656966048,
            -0.46775634871031413,
            0.8216307705310402,
            0.7389390054033584,
            -0.2672195527645038,
            -0.9795936442917451,
            0.677018006149984,
            0.4266372114502881,
            0.8605717336758102,
            0.6908957866378511,
            0.49297618514885133,
            0.6108205764383784,
            -0.6513381273000564,
            0.7047402094049838,
            -0.1289091159981115,
            -0.0462521653368928,
            -0.909285825266981,
            0.6786336715173368,
            0.03041379982007557,
            0.7351008282047067,
            0.9097911795321609,
            -0.1521129287045847,
            0.13098733805923488,
            -0.7867360706472089,
            0.38740966296648044,
            0.672428302774017,
            -0.8527636019112796,
            0.5058421537791902,
            -0.0944939903673325,
            0.9615992244767507,
            -0.11653441558952567,
            -0.6439062038093673,
            -0.7366747089012107,
            -0.7480151256948643,
            -0.9521284303055542,
            0.45834453179895185,
            0.6661937711016832,
            -0.14031253564515006,
            -0.7166102198993533,
            -0.9284181738116601,
            0.078285906606288,
            0.5321579656429898,
            0.12620252462207948,
            -0.14494984842577172,
            0.5121477708309942,
            0.5922288035227491,
            -0.8103429450074392,
            0.27934388886785405,
            -0.8219786856567418,
            0.9186848830477616,
            -0.23558127740744253,
            0.6626673623121091,
            -0.2316666949239576,
            -0.24977763183240548,
            0.5310633012091897,
            0.43826445530651226,
            -0.5904933524448623,
            0.5203542538207482,
            0.61782098637793,
            -0.4618732832340772,
            -0.7323799971279136,
            0.3163173660730643,
            0.911417728530408,
            -0.4196109872411034,
            0.6730627339787493,
            0.19720428510260646,
            0.573475045399564,
            1.166554019057365,
            0.4799142946716325,
            0.7582214944730186,
            -0.25269733919723464,
            0.9775421498021044,
            0.06237568143455253,
            0.20736830426791356,
            0.4065155942283088,
            0.019301650789260938,
            -0.885849303996338,
            -0.2651957682472736,
            -0.18257014392417484,
            0.5650239363532535,
            -0.19908151203675148,
            0.6615534521711219,
            1.0300387613192528,
            0.40013801664576654,
            0.6630633352230955,
            0.5978874504825626,
            0.14452991164328555,
            1.0690471560643193,
            0.5992088892168739,
            -0.4159945263391816,
            -0.5619064948251776,
            -0.2284559740974682,
            -0.2700277681799389,
            -0.7770940208412523,
            0.9456299311205759,
            0.3703969371621967,
            0.567274673684046,
            -0.5624169823223941,
            -0.8798677989331386,
            0.6970305867257353,
            0.8591865490338961,
            0.4018443546029303,
            -0.33219538010320454,
            -0.1829758512296101,
            -0.6051810063185483,
            0.1935186371929885,
            -0.015481418121059689,
            0.4033700348310868,
            0.7949011943273112,
            0.5560342120536378,
            -0.35735954648253704,
            -0.2524091910044143,
            -0.4550338658162514,
            -0.6508954055025185,
            0.5777312547386744,
            -0.1379952620447631,
            0.4777157940656517,
            0.05402947006501562,
            -0.2345703920299611,
            0.11322037437238135,
            0.48026668502963843,
            -0.35732114772468043,
            0.7983736962869281,
            -0.2846372400293308,
            -0.48928120679356446,
            1.1342647319123016,
            0.3365005051014989,
            0.06440991718767683,
            -0.7258828234639365,
            0.6423565285070504,
            -0.6668793055039327,
            1.043538441605507,
            0.5834488881333177,
            -0.03935840612961924,
            -0.7143659935103978,
            -0.5697732237011213,
            -0.2282602645154125,
            0.35905881136282797,
            0.03026012952449988,
            -0.5318833459565842,
            -0.16943708698411894,
            -0.12816413524220985,
            0.9539867903996133,
            -0.12829670953508474,
            0.30857326846747335,
            1.0112771530448967,
            0.2712891700357525,
            -0.6384147460393671,
            -0.6894491239280165,
            0.9441722695457063,
            -0.6798781932328632,
            -0.42563640310221473,
            0.46695869228891773,
            -0.4006786385280269,
            0.3797014180825103,
            -0.0580604400736886,
            0.5203589179558065,
            -0.8250371152727337,
            0.6324086764548404,
            0.4873563167255641,
            -0.6954085908969605,
            0.8623085287583887,
            -0.297098198133678,
            -0.15602383434876538,
            -0.9513884803403437,
            -0.9997528314671751,
            -1.1579667121723656,
            -1.6450216028509148,
            0.32829956130671023,
            -1.0571033897724103,
            0.892184504501772,
            0.1358085877966192,
            -0.19031441044557915,
            0.24410429196376612,
            0.7474567472661215,
            -0.6731546380818236,
            -0.26145673145168585,
            0.0018613916778108608,
            -0.8665569817892756,
            -0.10451784760072019,
            -0.3873567093131936,
            0.24513994863191604,
            -0.48535212772314557,
            -0.02552160502389294,
            -0.7360978336732463,
            -0.4767671944766531,
            -0.010566413230676237,
            -1.4616886128964532,
            -0.9952893861620932,
            -0.6948045243971439,
            0.8082245606734288,
            -0.17584757366550346,
            -0.00979837778027868,
            0.13389461585964674,
            -0.8686321013813549,
            -0.9744188423566409,
            0.4716635097971004,
            0.1381517850605776,
            0.2712542734826217,
            0.40036076252841707,
            -0.04111149201422061,
            -0.838455775417776,
            0.43697943281711243,
            0.1778878369520764,
            -1.6434873470378697,
            -1.3918021095243531,
            -0.8494035716353534,
            0.6980851791045116,
            -0.294316747316282,
            -0.5497109458406403,
            0.6717892041541367,
            -0.30553328917197026,
            0.5637377585018692,
            -0.09966315697029068,
            -0.24480412714900404,
            -0.1012795798784476,
            0.1549583513431887,
            -0.9128914033253828,
            0.7528846866908877,
            0.4883993900141063,
            0.5450497095421568,
            -0.7630761501311181,
            0.07486865468125914,
            -0.8230294394219657,
            -0.6138232603926657,
            -0.8101580358399195,
            0.8263576283663536,
            0.7624373381607479,
            -0.009413747499033547,
            0.4244888451190351,
            -0.8353412666799083,
            0.9036440013933924,
            0.5861600343389959,
            0.6271689956082583,
            0.6988685578842302,
            -0.8502914795920613,
            -0.8855158963082503,
            0.4674759125401289,
            -0.06702771979865194,
            -0.1740894305765465,
            -0.4566870110267642,
            0.8065848965782311,
            0.685380730318444,
            0.7711393248425055,
            0.5587296822577654,
            0.10398533951447804,
            0.436842939403218,
            0.5764783376404166,
            0.516708504262976,
            -0.8247654066082173,
            0.23520828936598429,
            0.18079596223405153,
            0.4762468404596757,
            0.11875790413934294,
            0.8147604358701979,
            0.03547392161313123,
            0.22089485326173033,
            -0.907582076306647,
            -0.5363962296557625,
            0.14990876031021608,
            -0.02657136618976437,
            0.06583237698019623,
            0.21697358279543055,
            0.9031162991760177,
            0.6698527227926899,
            0.32742701818195485,
            0.7164547050129556,
            0.3301482352990489,
            0.9153666096423448,
            0.6229751493181652,
            -0.510970467390567,
            -0.05428409503024504,
            0.06561497024079305,
            -0.8106181792160451,
            -0.3168464611104116,
            -0.8283390188642523,
            0.21084799881311453,
            0.09699822648927889,
            -0.3468511800849007,
            0.21514633380776987,
            0.3176250818192052,
            -0.06143250517107351,
            0.889636356428782,
            0.31925043869140984,
            0.4432598803697599,
            0.3148555385292703,
            0.003188884195318229,
            0.5405406518101544,
            -0.3564027535150791,
            0.3407121179867752,
            -0.13801196408153057,
            -0.2775228766501336,
            0.9641300278180158,
            -0.9155510644733265,
            0.12246967560754429,
            0.08513333319397365,
            -0.021096517150490355,
            -0.9709592953417728,
            0.7098565715221393,
            0.7513075876751113,
            0.8309536276786642,
            -0.4398527539514045,
            -0.5764584015176567,
            -0.21788362782546702,
            -0.13110865697447496,
            -0.048624684452087216,
            0.3446672660565611,
            -0.8612581935141784,
            0.9816736470165938,
            -0.5742024789730977,
            0.23880718983332172,
            -0.48094757305660224,
            -0.042739489547116566,
            0.29217359503232176,
            0.09966816995786743,
            0.324599989633348,
            -0.7247371625079257,
            -0.3366729749513061,
            0.8795913510957812,
            0.6208102885641258,
            -0.052435979267498795,
            0.9756719418816187,
            0.532884855513296,
            -0.43384229156645265,
            -0.38814851978464043,
            0.3319898592677474,
            -0.2601501340374896,
            -0.9486170583581999,
            -0.9739899127588177,
            -0.6034797840411464,
            -0.45573536334501924,
            0.863434081863987,
            -0.9068320827342445,
            -0.09470310298049381,
            0.5289610859017864,
            0.9109191136329251,
            0.6406710306027323,
            0.06606679043756868,
            -0.944591839341869,
            -0.038894361919072515,
            -0.7684886191492551,
            0.2586670104463813,
            0.5563051100090649,
            -0.03685857788235605,
            -0.26753487749478383,
            0.7312644531143433,
            -0.08801127642718384,
            -0.3952152357487058,
            -0.31523284290049186,
            -0.40600236724580946,
            0.3418855883444377,
            -0.5224802979422694,
            -0.6988521750133652,
            -0.5188433847002356,
            -0.5979875912088322,
            -0.8081618897738692,
            0.1615595015383371,
            -0.12744441892124764,
            0.0553999165929359,
            -0.23769058626170367,
            0.13309966346131905,
            -0.27301325293446926,
            0.18307728468576367,
            -0.2733236645631815,
            0.3861845146102623,
            0.8848992340679779,
            0.5114541919200541,
            0.23412505237991318,
            -0.08616814112344522,
            -0.44506488117532833,
            -0.4524095075784167,
            0.032319837014777024,
            -0.49914747858112124,
            -0.09392231115743166,
            0.9603748377166534
          ],
          "numRows": 1,
          "numCols": 400
        }
      },
      "ops": {
        "type": "org.ejml.simple.ops.SimpleOperations_DDRM",
        "data": {}
      }
    },
    {
      "mat": {
        "type": "org.ejml.data.DMatrixRMaj",
        "data": {
          "data": [
            -5.1733226826649865
          ],
          "numRows": 1,
          "numCols": 1
        }
      },
      "ops": {
        "type": "org.ejml.simple.ops.SimpleOperations_DDRM",
        "data": {}
      }
    }
  ],
  "biases": [
    {
      "mat": {
        "type": "org.ejml.data.DMatrixRMaj",
        "data": {
          "data": [
            0.1182589992237999
          ],
          "numRows": 1,
          "numCols": 1
        }
      },
      "ops": {
        "type": "org.ejml.simple.ops.SimpleOperations_DDRM",
        "data": {}
      }
    },
    {
      "mat": {
        "type": "org.ejml.data.DMatrixRMaj",
        "data": {
          "data": [
            2.4653934620454376
          ],
          "numRows": 1,
          "numCols": 1
        }
      },
      "ops": {
        "type": "org.ejml.simple.ops.SimpleOperations_DDRM",
        "data": {}
      }
    }
  ],
  "learningRate": 0.1,
  "activationFunctionKey": "SIGMOID"
}